<?xml version="1.0"?>
<opencv_storage>
<cascade>
  <stageType>BOOST</stageType>
  <featureType>HAAR</featureType>
  <height>20</height>
  <width>20</width>
  <stageParams>
    <boostType>GAB</boostType>
    <minHitRate>9.9900001287460327e-01</minHitRate>
    <maxFalseAlarm>3.9999999105930328e-02</maxFalseAlarm>
    <weightTrimRate>9.4999999999999996e-01</weightTrimRate>
    <maxDepth>1</maxDepth>
    <maxWeakCount>100</maxWeakCount></stageParams>
  <featureParams>
    <maxCatCount>0</maxCatCount>
    <featSize>1</featSize>
    <mode>ALL</mode></featureParams>
  <stageNum>3</stageNum>
  <stages>
    <!-- stage 0 -->
    <_>
      <maxWeakCount>6</maxWeakCount>
      <stageThreshold>3.3893708605319262e-03</stageThreshold>
      <weakClassifiers>
        <_>
          <internalNodes>
            0 -1 10 1.4363421127200127e-02</internalNodes>
          <leafValues>
            -6.8670308589935303e-01 8.3592015504837036e-01</leafValues></_>
        <_>
          <internalNodes>
            0 -1 4 3.9413198828697205e-03</internalNodes>
          <leafValues>
            -5.9236884117126465e-01 9.2791759967803955e-01</leafValues></_>
        <_>
          <internalNodes>
            0 -1 9 1.1137459427118301e-02</internalNodes>
          <leafValues>
            -9.0149092674255371e-01 6.0979443788528442e-01</leafValues></_>
        <_>
          <internalNodes>
            0 -1 7 -1.8969729542732239e-02</internalNodes>
          <leafValues>
            6.6707766056060791e-01 -7.1978598833084106e-01</leafValues></_>
        <_>
          <internalNodes>
            0 -1 2 -5.3285472095012665e-03</internalNodes>
          <leafValues>
            9.2391330003738403e-01 -5.3391218185424805e-01</leafValues></_>
        <_>
          <internalNodes>
            0 -1 0 7.0417979732155800e-03</internalNodes>
          <leafValues>
            -9.8178535699844360e-01 5.3950148820877075e-01</leafValues></_></weakClassifiers></_>
    <!-- stage 1 -->
    <_>
      <maxWeakCount>5</maxWeakCount>
      <stageThreshold>-7.2789192199707031e-02</stageThreshold>
      <weakClassifiers>
        <_>
          <internalNodes>
            0 -1 6 4.7165658324956894e-03</internalNodes>
          <leafValues>
            -5.8484351634979248e-01 9.0330791473388672e-01</leafValues></_>
        <_>
          <internalNodes>
            0 -1 5 5.2623301744461060e-03</internalNodes>
          <leafValues>
            -5.2499955892562866e-01 9.2992544174194336e-01</leafValues></_>
        <_>
          <internalNodes>
            0 -1 1 3.7077013403177261e-02</internalNodes>
          <leafValues>
            5.3761976957321167e-01 -9.9487739801406860e-01</leafValues></_>
        <_>
          <internalNodes>
            0 -1 13 -1.9737847149372101e-02</internalNodes>
          <leafValues>
            9.7674506902694702e-01 -4.7185018658638000e-01</leafValues></_>
        <_>
          <internalNodes>
            0 -1 15 -6.5405378118157387e-03</internalNodes>
          <leafValues>
            9.7875344753265381e-01 -4.7731101512908936e-01</leafValues></_></weakClassifiers></_>
    <!-- stage 2 -->
    <_>
      <maxWeakCount>6</maxWeakCount>
      <stageThreshold>-2.2091916203498840e-01</stageThreshold>
      <weakClassifiers>
        <_>
          <internalNodes>
            0 -1 14 1.4659455046057701e-02</internalNodes>
          <leafValues>
            -8.5167461633682251e-01 6.1168384552001953e-01</leafValues></_>
        <_>
          <internalNodes>
            0 -1 8 4.0142461657524109e-03</internalNodes>
          <leafValues>
            -6.1175090074539185e-01 8.4606713056564331e-01</leafValues></_>
        <_>
          <internalNodes>
            0 -1 11 -9.0561117976903915e-03</internalNodes>
          <leafValues>
            4.8552003502845764e-01 -9.6734124422073364e-01</leafValues></_>
        <_>
          <internalNodes>
            0 -1 16 -4.9089900130638853e-05</internalNodes>
          <leafValues>
            -9.9511599540710449e-01 4.0369105339050293e-01</leafValues></_>
        <_>
          <internalNodes>
            0 -1 3 -4.9380175769329071e-03</internalNodes>
          <leafValues>
            9.6624910831451416e-01 -5.6376165151596069e-01</leafValues></_>
        <_>
          <internalNodes>
            0 -1 12 4.1558542288839817e-03</internalNodes>
          <leafValues>
            -4.7480839490890503e-01 9.1705697774887085e-01</leafValues></_></weakClassifiers></_></stages>
  <features>
    <_>
      <rects>
        <_>
          0 15 20 5 -1.</_>
        <_>
          5 15 10 5 2.</_></rects>
      <tilted>0</tilted></_>
    <_>
      <rects>
        <_>
          2 2 18 11 -1.</_>
        <_>
          11 2 9 11 2.</_></rects>
      <tilted>0</tilted></_>
    <_>
      <rects>
        <_>
          5 10 1 3 -1.</_>
        <_>
          5 11 1 1 3.</_></rects>
      <tilted>0</tilted></_>
    <_>
      <rects>
        <_>
          6 6 2 2 -1.</_>
        <_>
          6 6 1 1 2.</_>
        <_>
          7 7 1 1 2.</_></rects>
      <tilted>0</tilted></_>
    <_>
      <rects>
        <_>
          6 8 3 1 -1.</_>
        <_>
          7 8 1 1 3.</_></rects>
      <tilted>0</tilted></_>
    <_>
      <rects>
        <_>
          6 11 1 3 -1.</_>
        <_>
          6 12 1 1 3.</_></rects>
      <tilted>0</tilted></_>
    <_>
      <rects>
        <_>
          7 6 3 1 -1.</_>
        <_>
          8 6 1 1 3.</_></rects>
      <tilted>0</tilted></_>
    <_>
      <rects>
        <_>
          7 9 6 3 -1.</_>
        <_>
          9 10 2 1 9.</_></rects>
      <tilted>0</tilted></_>
    <_>
      <rects>
        <_>
          7 14 3 1 -1.</_>
        <_>
          8 14 1 1 3.</_></rects>
      <tilted>0</tilted></_>
    <_>
      <rects>
        <_>
          8 0 12 19 -1.</_>
        <_>
          11 0 6 19 2.</_></rects>
      <tilted>0</tilted></_>
    <_>
      <rects>
        <_>
          9 7 3 3 -1.</_>
        <_>
          10 8 1 1 9.</_></rects>
      <tilted>0</tilted></_>
    <_>
      <rects>
        <_>
          10 14 10 6 -1.</_>
        <_>
          10 17 10 3 2.</_></rects>
      <tilted>0</tilted></_>
    <_>
      <rects>
        <_>
          11 11 2 2 -1.</_>
        <_>
          11 11 1 1 2.</_>
        <_>
          12 12 1 1 2.</_></rects>
      <tilted>0</tilted></_>
    <_>
      <rects>
        <_>
          11 12 3 3 -1.</_>
        <_>
          12 13 1 1 9.</_></rects>
      <tilted>0</tilted></_>
    <_>
      <rects>
        <_>
          13 0 7 6 -1.</_>
        <_>
          13 3 7 3 2.</_></rects>
      <tilted>0</tilted></_>
    <_>
      <rects>
        <_>
          13 7 1 3 -1.</_>
        <_>
          13 8 1 1 3.</_></rects>
      <tilted>0</tilted></_>
    <_>
      <rects>
        <_>
          17 0 3 2 -1.</_>
        <_>
          17 1 3 1 2.</_></rects>
      <tilted>0</tilted></_></features></cascade>
</opencv_storage>
